[
    {
        "type": "conv2d",
        "params": {
            "kernel": [
                [
                    [
                        [
                            0.1814363501812154,
                            2.3972465273837744,
                            0.6243149298297234
                        ],
                        [
                            -0.30990399968888455,
                            0.8868607533369749,
                            -0.5191552024828439
                        ],
                        [
                            1.615996145214705,
                            -0.48437794805960427,
                            -1.1155966303140334
                        ]
                    ],
                    [
                        [
                            -1.430403743496838,
                            -0.2780471708406446,
                            1.1901535854327532
                        ],
                        [
                            -1.0194696500583544,
                            0.1362488672038706,
                            -1.6806003539283014
                        ],
                        [
                            -0.9191624309636621,
                            -0.6438375883435353,
                            -1.5300617016914797
                        ]
                    ],
                    [
                        [
                            0.645728547380324,
                            -0.4860543955891176,
                            -0.001677516804891551
                        ],
                        [
                            -1.0940625059834932,
                            -1.268640485444238,
                            0.7047437698550055
                        ],
                        [
                            -0.8703324217677727,
                            -2.3218795257878657,
                            -0.3668222564963052
                        ]
                    ]
                ],
                [
                    [
                        [
                            -1.7442614042029925,
                            1.1957064371962964,
                            0.5386335743404711
                        ],
                        [
                            -0.7934892105770751,
                            -0.3471337223749575,
                            2.3552361562630506
                        ],
                        [
                            -1.0758211865582261,
                            -0.37002879194577,
                            -1.0715567952987304
                        ]
                    ],
                    [
                        [
                            -1.9051866242276156,
                            -0.5467549927346763,
                            0.7261252954279768
                        ],
                        [
                            0.5126114433205864,
                            0.5613963474178008,
                            -1.2286202738922511
                        ],
                        [
                            -0.7816073298617131,
                            -0.3758662418652862,
                            0.7968340055780069
                        ]
                    ],
                    [
                        [
                            -1.2181798363726588,
                            0.12684684431245916,
                            0.4333045774779549
                        ],
                        [
                            -0.3246156464683429,
                            0.7135062449699991,
                            0.08191069036034618
                        ],
                        [
                            -0.9432289959828887,
                            0.753316792170912,
                            -0.48527204418346587
                        ]
                    ]
                ]
            ],
            "bias": [
                0.0,
                0.0,
                0.0
            ]
        }
    },
    {
        "type": "max_pooling2d",
        "params": {}
    },
    {
        "type": "flatten",
        "params": {}
    },
    {
        "type": "dense",
        "params": {
            "kernel": [
                [
                    -0.21053946128958903,
                    -0.5194026829761298,
                    0.5754464961064627,
                    0.49750203738212995,
                    1.6826475655482507,
                    0.13136329065674116,
                    -0.43679367869673297
                ],
                [
                    0.2674466380939168,
                    0.6834005545930624,
                    -0.5726259869414778,
                    -1.1970174662293287,
                    0.7970199216326076,
                    -0.7334234159138686,
                    -0.7638965433776189
                ],
                [
                    -0.9967071562017306,
                    -1.2694961741654338,
                    -0.38274266961677395,
                    0.641351504950721,
                    0.62585412986603,
                    -0.050765642977525546,
                    1.037600029731901
                ],
                [
                    0.8274722954070658,
                    1.4513432484205595,
                    0.11594397954544232,
                    0.37182516134527044,
                    -0.3421436609695173,
                    0.13923371045788657,
                    0.09941876785311224
                ],
                [
                    0.21694644704194874,
                    0.7026767085444445,
                    0.838400141742005,
                    1.8714433510026005,
                    0.35961849004755647,
                    0.9688810968045957,
                    0.2926385935699875
                ],
                [
                    0.7176405338268214,
                    2.4878310667468373,
                    -0.24496172564368426,
                    0.3844789103723269,
                    0.6955322463714597,
                    2.258390692153426,
                    1.6756290061249095
                ],
                [
                    1.2683092267382055,
                    -1.2618578520064236,
                    1.3160064435398215,
                    0.00450893050650693,
                    -0.515385436201074,
                    0.01243809286730139,
                    -0.20566317584640106
                ],
                [
                    -1.3799592699056067,
                    -2.0007201760539037,
                    0.992474034367118,
                    -1.0488754818723827,
                    -0.011921972997510123,
                    0.08868089036810074,
                    -0.5812472065050185
                ],
                [
                    0.04696806459567409,
                    -0.0777095354567467,
                    1.6954478120339567,
                    1.259124965888193,
                    0.3478922386919554,
                    -1.0137935418153254,
                    0.284285371936702
                ],
                [
                    -0.018274687408464184,
                    -1.5199409682024023,
                    -1.13150552600784,
                    0.07048035152051008,
                    0.26872801841053434,
                    -1.7240968213885464,
                    0.013203578001149355
                ],
                [
                    0.6424949363954359,
                    -0.5028392610675197,
                    0.22810637831055583,
                    0.9268995185674942,
                    -0.3529728304660243,
                    0.9005492980755787,
                    1.3628486599103289
                ],
                [
                    -0.15018623233988604,
                    0.3227742142867131,
                    -0.7232217781137698,
                    0.3808166170945622,
                    -0.18034494853484692,
                    -0.5281842159128044,
                    0.44008352232667686
                ],
                [
                    -1.1841682284550752,
                    0.5746494217252732,
                    0.6893003457925706,
                    0.6094953709257385,
                    -0.35182400557549653,
                    0.9506492693539156,
                    0.7252623921807233
                ],
                [
                    1.0218438329491848,
                    1.1613284700496063,
                    -0.5423521934000501,
                    -0.44586126209732996,
                    1.5685398341330978,
                    -1.3423937955057383,
                    -0.9239288363247619
                ],
                [
                    0.34601532265924206,
                    -0.8065770468183895,
                    -0.8969772878434346,
                    0.09269639979926125,
                    1.4581937434632708,
                    0.381565779610074,
                    1.9832578360210587
                ],
                [
                    0.8512554347581027,
                    -0.6313159018336564,
                    -0.24687000461131844,
                    -0.28404887500492754,
                    -0.5375389789909935,
                    -0.8521192838512801,
                    0.38506554552044897
                ],
                [
                    -2.4315517890964466,
                    1.584010721448772,
                    1.2355027493887751,
                    -0.8956674535728817,
                    0.015839844960090145,
                    0.6068765201403408,
                    0.31175491823823637
                ],
                [
                    1.3359080629091666,
                    0.26546260061914956,
                    -1.0891710315193879,
                    -0.46207635581676465,
                    -2.0749395578956844,
                    -0.7177466739264822,
                    -1.789402005209986
                ],
                [
                    0.0716258279556592,
                    0.24644108456364447,
                    0.03422724917877508,
                    -0.1801782233054978,
                    -1.1259325336049204,
                    -0.25185450957340866,
                    1.1405563100876868
                ],
                [
                    -0.2530927566964456,
                    0.7158158202968683,
                    3.1215192278490047,
                    0.6338183509597347,
                    0.918548465968622,
                    1.6554243483608275,
                    -1.7986880507944791
                ],
                [
                    0.9001843902192078,
                    -0.2619351522352924,
                    0.17161979456508653,
                    1.3046716177707254,
                    0.4610676024102745,
                    -0.3603701208719177,
                    1.483408101290527
                ],
                [
                    0.432323435207616,
                    -2.2438462715781236,
                    -0.631612601593945,
                    0.06761522885952546,
                    0.43492427846413967,
                    0.4064275781537051,
                    1.704844275422782
                ],
                [
                    0.634660211322266,
                    0.5011742069362498,
                    -0.2525484383308837,
                    -0.3359381963653375,
                    0.16776591356871254,
                    0.384946891969049,
                    -0.8415587043178386
                ],
                [
                    0.27286061747232215,
                    -1.601379509332806,
                    0.7902715377654886,
                    -0.24316515922601908,
                    1.0657808517406626,
                    0.11130419307258135,
                    0.6289886975977441
                ],
                [
                    -0.7936167484972848,
                    1.070608303736754,
                    -1.3707354073689273,
                    -0.43583772228830636,
                    -0.4385682567954919,
                    -0.49609622018837696,
                    0.4383350458464126
                ],
                [
                    -0.5075152832684109,
                    -1.85804297217473,
                    -0.650247894988799,
                    -1.1693373472494661,
                    1.3051039418688786,
                    0.007791444836807788,
                    0.6884743143471672
                ],
                [
                    -0.028697669543021536,
                    0.7919708197401734,
                    -0.8827846443622109,
                    -0.25734086585486676,
                    -2.0553991208589446,
                    0.43687033998718533,
                    -0.3307377673069417
                ],
                [
                    0.7856287175916433,
                    -0.9130606039672385,
                    0.9113832822387614,
                    0.3052378022257219,
                    0.3931585624648519,
                    -0.9507614653290951,
                    -0.7193104877336306
                ],
                [
                    -0.033188758547755395,
                    -0.23483077820773574,
                    -1.2944937224749957,
                    2.2158721648476662,
                    2.0480760873821597,
                    -0.4242136114215489,
                    -0.952466438344297
                ],
                [
                    -0.7809772770862465,
                    0.6638275378294047,
                    -1.9833731190954234,
                    -0.5459158328032124,
                    0.9141412289298686,
                    -0.8278409276268642,
                    0.0582086294996109
                ],
                [
                    0.11152370506912583,
                    -1.7833372438649293,
                    2.0732799942309352,
                    -0.6837178880750951,
                    0.7891820727210752,
                    1.6484640439447371,
                    1.6263720494632083
                ],
                [
                    -0.4997621956099637,
                    -0.23734317499309765,
                    0.9362579286353165,
                    -1.5900635128262048,
                    3.2029746540542985,
                    -0.6341002774037069,
                    0.7730273492117334
                ],
                [
                    1.2006386557209157,
                    -1.4826857071012212,
                    -0.9563099544157228,
                    1.3354810253560052,
                    1.8311131381891188,
                    -1.482260923984672,
                    1.0184317781703465
                ],
                [
                    1.4743734834119242,
                    -0.6551488154490125,
                    -2.7816736249269325,
                    -1.6164741246855454,
                    0.498125601451614,
                    0.6808227545110995,
                    0.7851652869605015
                ],
                [
                    0.7651115603057904,
                    -0.8879882182180138,
                    -0.866702706229351,
                    -0.7091635877767134,
                    -1.0039807145951531,
                    0.6263113183035048,
                    0.7951699580447396
                ],
                [
                    -0.37417231863692346,
                    -0.3692288249435908,
                    1.354417872878879,
                    0.909653620691445,
                    0.06773467488471455,
                    0.8580355052771094,
                    -0.26912535678897653
                ],
                [
                    0.1774043771242662,
                    -1.188187669916927,
                    0.3865398731522603,
                    -1.3167278552213884,
                    -0.6183951301552308,
                    1.0979517599085813,
                    0.8419753189075947
                ],
                [
                    1.3041911558515162,
                    0.25581506126452985,
                    -2.0636686365939663,
                    -0.44930574189379885,
                    2.0047206372352577,
                    -0.18172825733380182,
                    -1.155643935484776
                ],
                [
                    0.8744834857994563,
                    -1.953373301800078,
                    1.2671449882593004,
                    -1.9423384278898739,
                    -0.9363354827385838,
                    -0.2643220973424534,
                    1.6417986273067062
                ],
                [
                    0.47686593335726807,
                    0.22278749335521963,
                    0.12225655842469894,
                    -0.27452874330200505,
                    -0.8946175421262333,
                    -0.9628784498260705,
                    0.004102532415570924
                ],
                [
                    0.5613874830940038,
                    0.44746748641286715,
                    1.199073581490177,
                    0.8967048347053526,
                    -0.39366051797060647,
                    -1.5951153411808656,
                    -0.6378627580553997
                ],
                [
                    0.5423954417588949,
                    -0.13730084604607937,
                    1.2137861329034858,
                    -0.6223574501921099,
                    0.5063716375546697,
                    -0.1759252516270862,
                    0.7705183710626187
                ],
                [
                    0.5269862180798671,
                    -0.09419971124948956,
                    0.7493729603496129,
                    2.179090426609011,
                    -0.8307620546222204,
                    -0.7436426393115612,
                    1.7192946334862196
                ],
                [
                    -0.06546778782885643,
                    -1.1506970079353795,
                    0.381116015686133,
                    0.49929173058186593,
                    -0.8492895215479809,
                    -1.1828755057078664,
                    -1.6743956920828222
                ],
                [
                    1.3596281332163007,
                    1.510818287726328,
                    0.3904738793626911,
                    -0.4034540611618934,
                    1.349191562528324,
                    -1.0491099237369537,
                    -0.48572421949186684
                ],
                [
                    -0.2646033294449431,
                    0.3977454214987322,
                    -0.988130787347084,
                    1.1181559035917985,
                    1.7853184094113088,
                    0.7027197102769537,
                    0.6961075996001251
                ],
                [
                    0.2503769182844189,
                    0.6029718863927541,
                    1.6995987944501392,
                    0.03692236958298646,
                    0.9479262015675631,
                    -0.18970917819518407,
                    -0.7701737154638876
                ],
                [
                    0.8889462332367094,
                    -0.7216881864867959,
                    -1.0341262582602646,
                    0.7540562573533894,
                    -0.480285113027035,
                    0.8314626460904454,
                    2.261107432595065
                ],
                [
                    0.3889010955207732,
                    0.1264120373847512,
                    0.3221483265027103,
                    0.41038556681986843,
                    1.3976764765724343,
                    1.365608804419699,
                    0.4733337930159054
                ],
                [
                    1.1344462029983913,
                    -0.6694347700693345,
                    -0.5301848260019933,
                    1.1684528963362795,
                    -0.2053956991347147,
                    1.3738972834982401,
                    0.13614758553228376
                ],
                [
                    0.36758793391072286,
                    -0.7840833022451115,
                    -1.461049999481031,
                    0.3699553063651826,
                    -1.6837493117625884,
                    0.6116071085049959,
                    -0.23168394670507436
                ],
                [
                    -1.0078490709512686,
                    -0.1567008827928117,
                    0.2725203465156331,
                    1.2825417993718926,
                    -0.138744888934269,
                    -1.0601774950664808,
                    -0.5684708700643873
                ],
                [
                    0.37776197461017536,
                    -0.7929674715399391,
                    0.6961071507888609,
                    0.9085007688362287,
                    -0.9584031930797576,
                    -2.047994527193185,
                    0.4300446099080994
                ],
                [
                    0.13952458367042814,
                    0.20958177173297152,
                    0.5547085596023437,
                    -1.0048473103390065,
                    0.9430342697435683,
                    0.18858422162171198,
                    0.9315855168084907
                ],
                [
                    0.5711865710362876,
                    -0.1606518821725694,
                    2.0696224682917985,
                    0.9851302092637256,
                    -1.2175204959153871,
                    0.21269673442625356,
                    0.8166261675394971
                ],
                [
                    0.9160753557056643,
                    -0.05583026102213772,
                    -0.7992438745776097,
                    1.2043333799830755,
                    1.1269145413666517,
                    0.5974183568713755,
                    -0.6474095373709349
                ],
                [
                    1.1707846349023225,
                    1.0032982298693913,
                    -0.3543561029195624,
                    0.2660420315052388,
                    1.5278345476721846,
                    -0.23852115904767968,
                    -1.2718963064505506
                ],
                [
                    0.9099933201568785,
                    -0.12152798224131574,
                    -0.21672910773531934,
                    -0.3816668220663508,
                    0.8065421590061169,
                    -0.05687265123238342,
                    -1.101013380784055
                ],
                [
                    -0.6315088774020575,
                    1.5470996773171093,
                    -0.905681647542626,
                    0.017553946462644694,
                    0.5238319321422603,
                    0.12998934138513624,
                    0.3374471299502757
                ],
                [
                    2.1328143489847693,
                    1.4336601807704277,
                    -1.1091248551829511,
                    0.9023238114175041,
                    0.5721295963601156,
                    -0.3145403131189845,
                    -0.5521399656069249
                ],
                [
                    0.8507044704208293,
                    0.20011816936168966,
                    -1.1832967282699607,
                    1.1052905516311438,
                    0.9777288799007212,
                    -0.2732890614999694,
                    -0.04940199251859237
                ],
                [
                    -1.2533234364588792,
                    -1.4192329632978964,
                    0.4740167126550784,
                    1.4351372475707047,
                    0.3138687399274908,
                    -0.28606729829907435,
                    0.9345753045747522
                ],
                [
                    -0.269159539162884,
                    -0.5347293944327494,
                    0.03905278187217138,
                    1.557873129194923,
                    0.20769352402133043,
                    -1.858316415105619,
                    0.967329942249647
                ],
                [
                    0.7847760073103919,
                    2.0649283157111595,
                    1.1476786939445138,
                    0.48995943885556187,
                    1.7041044289522407,
                    -1.3584606360259968,
                    -0.6316928434269256
                ],
                [
                    0.33324052716995967,
                    -1.0247153842675336,
                    -0.40396290078960617,
                    -2.3650804298863086,
                    0.00020563272391914354,
                    -0.4632433129400822,
                    -1.6067764853610982
                ],
                [
                    0.8965936714898008,
                    0.5620126406464931,
                    -0.023669958931543673,
                    -0.21339857187736513,
                    -0.6715791434584201,
                    -0.759604855401507,
                    1.3244944082739265
                ],
                [
                    -0.11004190471306596,
                    0.18123722516929147,
                    -0.42040493068521567,
                    1.0808233456584049,
                    -0.8424225727517072,
                    -0.135204521254228,
                    -0.03901955406569971
                ],
                [
                    0.4692381530312232,
                    0.18880487459458709,
                    0.9897035414252874,
                    -0.8327902206428619,
                    -0.8097210630967565,
                    -0.24786337853599474,
                    0.34358586650823064
                ],
                [
                    -0.5672248869847824,
                    -0.5698017709315907,
                    -0.7849165402859515,
                    0.23006494799072227,
                    1.8232877595533166,
                    0.6559705114598018,
                    -0.43415614537352687
                ],
                [
                    -0.4013122783246279,
                    -0.4960569374405231,
                    -0.9106735334742108,
                    -0.7221106873691726,
                    0.1827199211789509,
                    -0.32284923047620717,
                    -1.5398552852960674
                ],
                [
                    0.17865444721218113,
                    0.6092801806796572,
                    0.9266956673955762,
                    -1.6161509567674224,
                    0.44225283635871593,
                    1.4867919847807243,
                    -0.6960108522227457
                ],
                [
                    0.7356478162338616,
                    2.7438448024960254,
                    1.5153454040739645,
                    1.046052431316233,
                    1.6661610877357618,
                    2.314062011183824,
                    -0.3885024512235831
                ],
                [
                    0.7864202879188118,
                    -0.2504128555568301,
                    -0.5121958126539018,
                    -0.18857291213517513,
                    0.30895448873974524,
                    0.07394623287294241,
                    1.1471487290515248
                ],
                [
                    -1.726527941725809,
                    0.8037106802600515,
                    -1.1673732579255458,
                    1.3414560844777685,
                    0.5962335529414396,
                    1.6088675122492897,
                    -0.6329445070873262
                ],
                [
                    0.6674391575116897,
                    1.3581344572232537,
                    0.7127446481400173,
                    -0.9644707363988345,
                    1.3535190877977517,
                    0.4870505479672277,
                    0.08686363557853294
                ],
                [
                    0.011766106555609761,
                    -1.1222227506070164,
                    0.5030002917342182,
                    -0.6747653123975517,
                    0.6112732409134279,
                    -0.5979813815762896,
                    0.6047321163901902
                ],
                [
                    0.77193034445752,
                    -0.7667790634224303,
                    -1.2388615258748072,
                    -0.5415088965389645,
                    -0.5313331168558804,
                    0.4005198508253651,
                    0.804390362403742
                ],
                [
                    -0.19902133885786466,
                    -0.5029328619282648,
                    -1.15978059775565,
                    -0.8878545947444739,
                    0.20102998209470924,
                    2.4702724043646622,
                    -0.20343753241894685
                ],
                [
                    -1.7925555393481585,
                    -1.8999369857645563,
                    -0.1370672707202519,
                    0.18262939813613957,
                    -0.41006662486717854,
                    -1.3013379882827258,
                    1.5055544933652938
                ],
                [
                    0.31560507198657883,
                    0.9075294213767612,
                    1.520022538951564,
                    -0.7766890340024067,
                    -0.7365416601561491,
                    0.6371289404633187,
                    0.9999319553263882
                ],
                [
                    -0.42363510550580186,
                    1.6166473340264156,
                    -0.6424641071379609,
                    -1.781729502512649,
                    0.5275848135535471,
                    0.32466324947221725,
                    -1.8398406614862748
                ],
                [
                    0.9632226347121721,
                    -1.6027478254606073,
                    0.563873390814279,
                    0.2926213399420701,
                    -1.0399101231496832,
                    0.25882763922793284,
                    1.2372446929306005
                ],
                [
                    -0.4321512506648672,
                    1.608046186549164,
                    -0.7509530028651491,
                    -2.280576638913801,
                    -1.240194107068351,
                    -0.3765657299483944,
                    0.5340636248422447
                ],
                [
                    -0.5091731475809871,
                    -0.9359771467456863,
                    1.132733769993218,
                    0.9612815296334526,
                    0.5396827261424751,
                    1.2145343947715623,
                    -1.5313307367565956
                ],
                [
                    0.583818029719396,
                    1.1227049338761323,
                    -2.0129015747318246,
                    0.8640217868386525,
                    0.3125379653702922,
                    0.960498711757131,
                    1.9176856973958303
                ],
                [
                    2.639917378022223,
                    -0.0748790085873515,
                    0.7362183913958826,
                    -0.10192436662160102,
                    -0.08868185035263168,
                    -0.7498431385218015,
                    -0.6862744962224312
                ],
                [
                    -0.28652805063561454,
                    -1.063151262452071,
                    0.02088227908363995,
                    -1.8002172082794172,
                    1.6512342603530867,
                    1.0683947265114164,
                    0.07222278715876788
                ],
                [
                    0.1944335464672426,
                    -0.45249520885352873,
                    0.49043187356616075,
                    0.8523825416199211,
                    -0.0892233912627795,
                    0.06713418453034282,
                    0.45589860635307633
                ],
                [
                    -1.1536989665170616,
                    -1.4385140343415928,
                    0.4374729797351194,
                    -1.0000857746203442,
                    0.6476216367095672,
                    0.3364481373279116,
                    0.827331536254764
                ],
                [
                    -1.7728263784390572,
                    0.6772465742049562,
                    0.4287471137809932,
                    -0.5156415061327628,
                    1.7315157779882446,
                    0.14759639574430336,
                    -0.4242655207578567
                ],
                [
                    0.881415398968164,
                    0.09706799803414663,
                    -0.9928295161012478,
                    -1.4988610441685468,
                    -1.171961017262028,
                    -1.3526299026630475,
                    0.3213105122527931
                ],
                [
                    0.35846104687448344,
                    0.6833173810947525,
                    -1.1887675314552988,
                    1.9005762299654383,
                    -2.935657445562183,
                    -1.3546769513719203,
                    -1.1903787978780511
                ],
                [
                    -0.1153007750363926,
                    -0.5179034266858213,
                    0.2575930450771158,
                    -1.1499017915932548,
                    -0.6326427140667816,
                    -0.7617102727182736,
                    0.5498247327553731
                ],
                [
                    0.06092317835852693,
                    1.2550852577063523,
                    0.1594514387541935,
                    1.2222412785874328,
                    0.17634656355711928,
                    0.2355752938918399,
                    0.12106578966190791
                ],
                [
                    1.238402223050066,
                    1.5050616293100434,
                    -0.9487510545543476,
                    1.2625785002149934,
                    -0.7088129097070621,
                    0.1920280302635526,
                    0.43441540936569084
                ],
                [
                    -1.324475688742906,
                    -0.6220523860377756,
                    1.1413661899449636,
                    -0.5442370535139291,
                    0.8461400335403936,
                    -1.2840672734982115,
                    -1.0913840792491367
                ],
                [
                    0.04726560291809554,
                    -0.9388789120130373,
                    -1.5405418270326574,
                    0.6977290751994718,
                    0.607640057732439,
                    -0.07064465974036802,
                    -0.5334354155687384
                ],
                [
                    1.006758267207616,
                    -0.7138546135296442,
                    -1.2644925978621955,
                    -0.36849637242529404,
                    -1.5308432678931911,
                    -0.028451494283735033,
                    1.4677011478757773
                ],
                [
                    -0.10361677752119326,
                    -1.6059595427653033,
                    1.2867992545566218,
                    -0.2491735760855201,
                    0.8215649616201506,
                    1.188796454494451,
                    0.39823640347896483
                ],
                [
                    1.3381201487851497,
                    -0.8457893755172373,
                    0.3316389517315891,
                    0.30359555946347333,
                    -0.13695304729335386,
                    -0.9025642754498748,
                    1.0730183528125607
                ],
                [
                    -0.8321992578733446,
                    -0.8870017411136994,
                    0.3645731284063894,
                    -1.8828656065488159,
                    -0.26567424659967775,
                    -0.9454324398891926,
                    1.1076960349898421
                ],
                [
                    0.0677565756196414,
                    0.19580801207972207,
                    -1.208840622333367,
                    -0.4027643025073127,
                    1.462086837516793,
                    -0.8376501063823538,
                    0.9966914802717931
                ],
                [
                    -0.0010057766518701688,
                    -1.5584561292777563,
                    -0.6892837283952312,
                    -1.1585352402483498,
                    0.6535716518678459,
                    0.36555235028628624,
                    -1.1493948957398643
                ],
                [
                    1.1020753020248428,
                    -0.870580282195595,
                    1.063610708148062,
                    0.8956550749315949,
                    -0.616431974284101,
                    0.06322171778344933,
                    0.35892497476018254
                ],
                [
                    1.5840196338488437,
                    0.53343414375369,
                    -0.7893705503781346,
                    0.10485446091595084,
                    1.3551043223481571,
                    -0.7223015146374387,
                    -0.039277014932658505
                ],
                [
                    -0.7116374167112054,
                    -0.06521988252085975,
                    0.3453320966710965,
                    0.724611470133089,
                    0.8725950993416776,
                    -0.9596668733293935,
                    -1.6225379935874735
                ],
                [
                    1.7271118450078657,
                    -0.7529657144991347,
                    -0.8594129338822061,
                    1.3996543329091065,
                    -0.01162172213692617,
                    -0.15351446147064365,
                    -2.388450914100451
                ],
                [
                    -0.21068613770589195,
                    1.991613246459135,
                    -0.8126017137802093,
                    0.7060065410345494,
                    0.8424285055387418,
                    0.26199931133368254,
                    -0.3932815388253054
                ],
                [
                    0.6714145382862727,
                    -0.19952484271427337,
                    -0.9481307067257303,
                    0.09108882597719851,
                    -1.065886421148421,
                    -0.30277895194300813,
                    0.15507984995828658
                ],
                [
                    1.1152653035963882,
                    0.9075015671330013,
                    1.5085831513187744,
                    -0.02878146820068113,
                    -0.9312978489626796,
                    1.548550804034116,
                    -1.5692675861210263
                ],
                [
                    1.0918466295936715,
                    0.02531764923743296,
                    -0.7443000836674386,
                    0.14816564910402838,
                    0.16217270190454822,
                    0.3652173340251829,
                    -0.8867780949471835
                ],
                [
                    -0.9067167254916131,
                    -0.8634689062845149,
                    -0.4833822535783053,
                    0.3774726724141992,
                    -1.1086477111473134,
                    -1.0040622491704179,
                    0.4493937505004666
                ],
                [
                    -1.301100987637463,
                    1.6068735197128388,
                    0.2513110761441168,
                    0.9456449958926098,
                    1.3424313830047798,
                    0.4731853190517481,
                    -0.7295365446152026
                ],
                [
                    -0.1129641656490522,
                    -1.466673196976536,
                    -1.9466824392075763,
                    -1.3435666294512192,
                    0.012336750106251987,
                    -1.7524756143671678,
                    1.03868253578957
                ],
                [
                    -0.20704701278006635,
                    1.4573201234099669,
                    1.6708354398192435,
                    0.07983922694053994,
                    -1.509361069685956,
                    -1.0209637892458094,
                    0.9037758485308316
                ],
                [
                    -0.692225093217292,
                    -0.4473409488661993,
                    -0.8807835373082977,
                    0.5271367662273109,
                    0.2768671990413311,
                    0.04213656994320214,
                    -0.8432719524765416
                ],
                [
                    -0.21649703439112997,
                    0.34992240379350437,
                    1.6240353763547744,
                    -0.2008141333992045,
                    -1.0327455204327889,
                    2.283506885835486,
                    -0.10623751093040366
                ],
                [
                    -0.5461971010227491,
                    -0.9022861588867158,
                    -0.23147323755876564,
                    -1.4402038045549066,
                    0.3073809395791576,
                    -0.7901259115041009,
                    0.4262004987215123
                ],
                [
                    1.0523992422993411,
                    0.37424885357149673,
                    -1.4348564564203214,
                    -0.43413245661821426,
                    0.8600235363604104,
                    -0.04231568251138076,
                    0.8848490935888998
                ],
                [
                    -0.6807580094141724,
                    -0.32249039150124387,
                    -0.25869922771481124,
                    -0.2181854224304195,
                    0.058159728176295764,
                    -1.241129645475085,
                    -0.5064416901393782
                ],
                [
                    -1.1423393582739043,
                    -0.5312714003401096,
                    -0.0359454168799313,
                    1.353263272167434,
                    0.32136487562042215,
                    -1.013036547823273,
                    -1.0702007110172573
                ],
                [
                    -1.5275924443030136,
                    0.6236457770306213,
                    -0.5564248166137538,
                    -0.17434188111714521,
                    1.4938762842670215,
                    0.5480821056466306,
                    -0.2292710187619799
                ],
                [
                    -1.1022161197596658,
                    -0.4453731270328579,
                    -0.21484383992139497,
                    0.7635086433280273,
                    0.4454044232808973,
                    -0.2788399349719824,
                    0.408678720049794
                ],
                [
                    -0.2693005927455677,
                    -0.33161457442601605,
                    0.5134646346016525,
                    0.22036375863439445,
                    -0.26989371170727183,
                    -0.23517287815324575,
                    1.4024260876302121
                ],
                [
                    0.0007102289998812092,
                    -0.12189182414496492,
                    0.8540009899672045,
                    -0.6431106494225363,
                    -0.012013354443505587,
                    -0.6263482452756853,
                    -0.9605061356399348
                ],
                [
                    -1.4537969627845777,
                    -0.3357039709052196,
                    -2.326327605595904,
                    0.35412924495868764,
                    -0.05243750941189803,
                    0.8340863775845142,
                    1.3505455305659428
                ],
                [
                    2.4373768315004,
                    1.100722003541997,
                    1.1189748631688947,
                    -0.09776018401131997,
                    -1.7769670029250224,
                    -0.2662779106522561,
                    -1.4158738301168934
                ],
                [
                    0.23563829679426343,
                    0.11653730840786335,
                    1.2636660067754646,
                    0.2781197727305194,
                    0.7505437533933474,
                    0.6117131028646158,
                    1.3318826341719174
                ]
            ],
            "bias": [
                0.0,
                0.0,
                0.0,
                0.0,
                0.0,
                0.0,
                0.0
            ],
            "activation": "sigmoid"
        }
    },
    {
        "type": "dense",
        "params": {
            "kernel": [
                [
                    -1.351872731622853
                ],
                [
                    -0.2609700031635539
                ],
                [
                    0.22813525397025539
                ],
                [
                    1.0912958335821992
                ],
                [
                    -1.621664100252114
                ],
                [
                    1.429963667459617
                ],
                [
                    0.058514680235703304
                ]
            ],
            "bias": [
                0.0
            ],
            "activation": "relu"
        }
    }
]