[{"type": "conv2d", "params": {"kernel": [[[[0.8955643756243696, -0.04224224405201083, 2.210390239939899], [0.7134664928731069, -1.2045112492894754, -0.6514675815651427], [1.2324479668298098, -0.6922979670444944, -1.0243124848748042]], [[0.827570777753383, 0.02002128018004949, -0.11005744755424045], [-1.2764972980799243, 0.4607673093135848, -0.2330743223282209], [-0.6743910914494075, -1.4608078945503635, -1.3696175972243314]], [[-0.8077722018195336, 0.3596220549991775, 1.7371301559423293], [-0.5782669512430074, -1.1025413469674878, -0.07512377050016221], [-1.820922507563009, 0.20322667153731364, -0.6842856250514413]]], [[[-0.23014354519666474, -1.4272789234715624, -0.6176575371828126], [1.0364716000233576, -0.6393429127603287, -0.572451819018756], [-0.6467487143426511, -0.5257152685904471, -0.03568630746693913]], [[-0.31409713290643737, -0.25713839201465183, -0.16349537208249948], [-0.2798800555898515, -0.8439491540752094, -0.3785618568606714], [-0.4908225458108819, -0.15010949894137213, 1.3480184825086905]], [[0.5599412785103125, -1.7112637172044205, 0.3442180660659969], [-1.6884588223260872, -0.12149901033417317, 1.3713711720147397], [0.5639522976171039, 2.3543021730111207, 0.18853518349319173]]]], "bias": [0.0, 0.0, 0.0]}}, {"type": "max_pooling2d", "params": {}}, {"type": "flatten", "params": {}}, {"type": "dense", "params": {"kernel": [[-0.14016519204399902, 1.4227246961613325, 1.875006883371666, 1.4948480890280051, 0.19787197929995884, 1.0097583793580156, -0.8392736560220495], [0.12110651197245519, -1.5952712742229733, 0.46651205832849296, 0.6722671304481325, 0.5851038732160905, -0.4588459897352618, -0.4547901912639474], [1.5344235457895044, -1.4029213841005455, 0.9382845407667756, 1.2282755666566303, 1.806007756577732, -1.5924543636776984, 0.8408262552190047], [0.9026780838476866, -2.430449291085773, 0.7415527309100397, 1.3799887893281708, -0.6353023251090821, 0.8684154609696414, -1.5532335447522247], [0.7971110352771595, 1.0633543197480966, -1.09366022458105, -0.22715496033582114, -0.6347059497839127, -1.1010256221652404, 1.0878712233567986], [0.02001600452062216, -0.5228856941032922, 0.9631435079978459, 0.8630672490336906, -0.2067110016351248, -1.6268570869297292, -0.12040619029623519], [0.262279360565484, -0.06293698293833445, 1.817177595060429, 0.7774422169827175, 1.2659150307522726, 0.14174129150092094, -1.3533173299245074], [-1.46393394722395, -1.1187898543952637, 0.8628806095029793, -0.39068784969165427, 2.0181440620480844, -0.4601164217971181, 0.2623178308179639], [-0.6890487891668735, 0.4211948212740221, 0.5066829816454589, -0.0596433289978308, -1.918124191226111, 0.8149830044777415, -1.0955569205603173], [1.298338136286377, 0.8417539795674955, 1.411008053909238, -0.5376442910036034, -2.6493303991886084, -0.5597569149219124, -0.5746507176754517], [-0.2774284805199774, 0.18704771520122984, -0.6281810944576469, -0.02916587327047336, 0.2687022142266198, 0.8919846363732494, 0.24555862503296672], [-0.6745557603008993, -0.5399885634559934, 0.046999040145346636, 0.3495183588222941, 0.6688028149915412, 0.63722018391421, -0.27054827493876554], [0.305532357444844, -1.1416018095585372, 0.494712991912777, -1.521388981082724, -0.1718530337609403, -1.7081013589073266, -1.6171718504833397], [-1.287867077457621, 2.0199875421762545, 0.016293578706085984, 0.40801771453934504, -0.19967870946083371, 0.6145556300224018, -0.92585674550577], [-0.8248590328848603, 1.3477412761914012, -0.40357478898845045, 0.6104995446082657, 0.12042649103207342, 0.012789477401765201, 0.29256068991777456], [1.7114801854908324, -0.6985249344323005, -1.7325047657535162, -0.6764738674829981, 0.6571674249603502, 0.12269533459407042, -0.69066919833253], [-0.18025652791229818, -0.9244652622542684, -2.4854646052549274, 1.6683369757642115, 0.9858538086237579, 1.1339218450654065, 0.299856604418397], [1.9533148841458836, 0.295938616288298, -0.045975904865980695, 0.31342412549648374, -0.42123327813404043, -0.48163204151731387, 1.4380831011089952], [0.24263992932731254, -0.20504046852012656, -0.5200447227257715, -1.5434247520584017, -1.0298998079890616, 0.12972075797699703, -0.7228669625131235], [0.7585183891292971, -0.16749765531157756, 0.15681828324272937, 0.427123415875712, -1.4846553267482927, -0.3512172810772182, -0.65432650859428], [-1.4826389249883163, 1.4741075869387377, 0.8294327393170096, 1.9508683984870208, -1.9992018183737164, -2.3773624616865354, -0.5746345313793376], [1.7207829341587726, 0.8562764822345555, -1.5590510892776113, 0.8100541018944256, 1.948374343597887, -0.5973526112142281, -1.2994097600509726], [-0.6391863771888208, -1.593075100283631, -1.1250605164320138, -0.33762884652949127, 1.512855858203262, -0.4391695398082626, -1.0935667215459406], [1.3873094276189641, -2.3267613822490816, 2.0210294885920606, -0.17696975229086614, 0.09995208147646761, 1.7948510323629523, 0.7463747732820322], [1.0611428965758418, -0.26984582718118655, -0.5936151292153076, 0.2874517453342232, 0.27449728339730173, 0.31375688219082953, -0.44230747775339785], [0.8235877264938654, 0.047743094760206474, 1.1459986350355367, -0.9336117539993971, -0.4507021331590269, 0.02200612941474526, -1.640662349352754], [-1.7592019573469422, 0.03130919662870782, -0.33222029771475775, 0.2001135447557058, -0.7397404193023174, 1.5395328801121428, -0.18474396468438034], [-1.224287342948382, 0.3715929375000834, 0.1680878790512543, -0.21940577836730132, -0.8709097057305935, -0.28589390779765583, -0.7298350583158435], [1.2400621405174006, 0.29797712479602767, -2.1418646601724878, -0.40804981295524834, 0.35532033932160695, -0.009774748121651447, -1.379199684471304], [-0.7915143750331111, -0.4360630864303018, 2.3310115533380125, -0.6014093373945884, -0.5540932535800518, -0.11479240617479698, 1.741720073976433], [0.7697153106924065, 1.796421039288649, 2.174913638834546, -0.037350109477428166, 0.8618507404321186, 0.1855317424333963, -1.7469316684051157], [0.694566282663691, -1.2879959923842879, -1.4818187392710662, -2.3600241736665497, -0.14691388128422653, 0.6037471190109209, -1.7512726611673872], [0.09750636244846766, -0.5918813443786167, 0.965119454592669, -1.255802448457407, 1.0507337153962486, -0.2571454876453537, 1.4704066823992488], [-0.6622831716220442, -1.0186204022603464, -0.9980267184464194, 0.23663775291137026, -0.9474803340725454, 1.1544493897036363, 0.3282597964670174], [1.6588345994376061, 0.8792023883263155, -0.7327620958218584, -1.0753754917168965, -0.46184297292002385, 0.7538210384373026, 0.2498903030423083], [-0.39512527862710994, 0.4358201298076475, -0.7056592956187706, -2.3592771027440174, 1.090212349585923, -0.5184180875380744, 1.0411536690969156], [-1.4787224053198436, 0.1341691818650304, 1.0318905776022582, -0.06408082309692623, -0.97032530342079, 0.16252510960476652, 0.2845952691685562], [1.0768903212537628, 0.37218502851093066, 0.4676293683939503, 2.0728682737587967, 0.8665693717845246, -0.33170847556223226, -0.5012795287169524], [0.6289379187207641, 1.021805922682904, -0.7758383502997118, 1.1857126547311243, 0.49744132552146547, -0.5800628395934405, 1.5664274074958129], [2.508328812849231, -1.182624107242769, 0.5197405139041487, -0.9257225545468605, -0.4044404580446668, 0.714934066032736, 1.508605246883042], [0.7847065979769452, -0.12271153673636245, 0.26399336436595255, 0.3311398741310576, 0.7985190401036254, -0.14812672621499426, 0.3517958922240108], [-1.6398484885869355, -0.5699682001367021, -1.5519434534291103, -0.6255362445428296, -1.0428101600934632, -0.6723990243803474, 0.07937862029743366], [0.6335466285117948, -0.7874894425972291, -0.3126635697290745, -1.5747554925678888, 2.3079131778553927, 0.2555478200231721, 0.5088565284264921], [-1.2564992032003452, -0.028612842484931657, -0.26941722613611835, -0.35463569404801976, -0.0036253852855640135, -0.1770230687009436, 0.8687564367221037], [1.4179996688654626, -1.0751123942972203, -0.7901214484326358, -0.11186882870988334, 1.0588978219282368, 1.932163476070818, -0.6419329754029712], [0.20363794538901747, 0.012685258090820552, -1.6492880398414527, 0.17379656384775788, -0.5300556891907594, -0.7350694742833196, 0.30073053565823166], [-1.0275978691443604, 0.9736337481508863, -0.13671249455570014, -0.8287274989981899, -0.31561338055480853, -0.47134125193291926, 0.034655164499729135], [0.06527045278321078, 1.5975784448195873, 0.38879755651646214, 2.112204131337181, -0.45144466843464937, 0.4462442055386867, 1.0335402185317655], [-1.1198607281754396, 0.9813626303672472, 0.9327922105066296, -0.4290265332156694, -1.143560382453525, -0.8721591017739911, -1.7547373080543416], [1.0331812152860778, 1.0665518031775052, 0.8827926601824857, 0.391463189642297, -0.25799672702169674, 0.17493337729223102, -0.5527778872081891], [-0.002345260883202918, -0.5891494386790793, 1.0347390439886819, -0.4196022120535622, 1.0765682903878067, 0.36249784136179647, 0.5474902410738991], [-0.12814834571335787, -0.9496954812857995, 0.6990262781302479, -1.286852835866346, -0.07830592888202664, 1.8566953370785326, -1.8448797378627486], [0.5686162522846753, -0.8217371198864903, -0.04487591773883902, -0.4941542964138909, 2.0894211455945877, 0.619482294954826, 1.8769415684698088], [-0.5197129130522077, -0.5684738581969384, 2.0484923319599257, 0.648588051564516, 1.557094492410347, -1.864761231273387, -0.6261154294447395], [-0.3058161310835004, -0.5044360158848619, 0.16937169248108166, -0.0059246925205096975, 0.1800675417616707, -1.8756111366652972, 0.5871420182861421], [-0.15247380906664107, -0.7059194947526563, -0.15374518820851554, -1.785456565188353, -1.7419600895327059, 0.44538906382360594, 0.7700369235883455], [-0.5894645994660072, -0.30550921698226, 1.5794335071422574, -0.7880893801901602, 0.08434248243257675, 1.21244013298074, -0.16457194485387938], [1.7266167683642633, 0.35092076953153944, -1.1303081515445619, -0.9728192152263397, -0.7510726977686236, 0.9219046172018386, -0.5732595209288551], [-0.8710180624810451, 1.1980961501455525, 0.9742489163578868, -0.2854793453424092, 0.006239344035931481, -0.8963557189755764, -1.3418206231256045], [-0.09201864626511318, -0.18789008221959702, -1.2356033004706417, 0.22941619961609613, 0.2513284312082723, -1.795618279353866, -0.5806540767107035], [-1.2741042942949832, 0.6152242542728618, -0.44829052706714917, 1.055247169815989, 0.1250323886951721, 0.14074676176489256, -0.5609654992452632], [-0.6604722840195111, -0.12309809790475168, -1.0664409997579711, -1.0377757706861286, 2.4108882438465478, 0.751875967076088, 0.43536415542405615], [-0.13424451517191832, -0.016312448082617226, -1.02444360787792, -0.020276431190618643, -1.770678896464455, 0.329557433571071, 0.4765934205552472], [0.14882948654049477, 0.15236872243548505, -0.34594832424895905, 0.1169469986666261, -1.0799317504431623, -1.3165056935700206, 1.1529017397950079], [-1.442095799467392, 1.4346291187042455, 0.8384787145972391, 0.6272064084507215, 0.5689022858359881, 0.11016636915274565, -0.6798505231915688], [-0.9786774036298574, 0.3364564653475272, 0.7177329659160289, -1.1611748696446145, -0.16594571601338653, 0.534722749822736, -0.8062452149376396], [-0.002695666895713701, -0.6817940210881474, -0.15010257974825467, -0.3767726106931286, -0.07194894242325925, -1.1342085714170949, 1.4975687566468194], [0.35411727855531444, 0.8140843735349615, 2.766250998793324, -1.4610153766724494, -0.8571163828611016, 0.8006738643361104, 1.474411165556727], [1.0653638389042628, 0.19710291388509196, -0.9055212206084103, -0.22350548806277165, -0.46787674262197376, -0.7652828013575789, 0.500407454562232], [-0.4483556232924882, -2.313410816075128, 0.9115569989670772, 0.780026171077109, -0.4304291852138157, -0.4015542740706513, 0.7088957155415404], [-1.5926463924051244, -1.953520256124107, -0.8098100342657476, 1.0712158926245177, 0.6526103637869585, -0.5934809775135442, -0.011643822222715466], [-1.2022040451782976, 1.2915923747378473, -1.24860516877167, -0.8176806557067098, -0.7266821483002148, -1.7403903912120413, -1.232942707595282], [-0.43012670694960625, 1.4885716452808322, -0.7173274776606391, -0.20380646049848955, -0.6299042097971836, 0.23770760967116564, -0.8449820434450099], [-0.8327116219385354, -0.47167994199810537, 1.356241541645226, 0.4899609129436268, 1.056030522074457, -0.6957005897784914, 1.1357947299044029], [-0.4665765253466275, 1.0024196564064858, -2.276198472936322, 1.0280449033120156, -1.3926919134082778, 1.4800736294591335, 0.6904990016034713], [0.3175269802100308, -0.6409742695075783, 0.5734387442035661, -0.7067468843015356, 0.02519858225187026, -0.5536605576561926, -0.07306391855745184], [0.08844142198884616, 1.6555148807653175, -2.2661442192308026, -0.47057540032808926, -0.1588177314285463, -1.0764839653935467, -1.7874354335866662], [-0.7261900062007668, -1.7070042664395846, 1.0331795559787196, -0.48194009003998634, 2.025695691906732, -1.1201285570771942, 0.29616417439462667], [0.5460159546879912, 0.7115814949024744, 1.3471077614213371, 0.9468752267947225, -1.3087269533006447, -0.22385034663815698, 0.881882361291178], [0.12477155951471981, -3.1086113048369115, -0.9926785082097745, -1.7990501923025548, -0.17138130616203767, -1.5236024390933065, 1.2470806122396403], [0.2845653427389614, -1.6714908010175318, -0.3015144283007715, -0.11003435098228845, -1.1363203634787518, -0.8105238809606475, 0.2856919693600474], [-0.15334669000634227, 1.074596037746317, -0.3775921502904631, -0.4231840270650296, 0.5084504548197781, 2.248480783248524, -1.4643012386893983], [0.4169229582249328, 0.517518110543786, -0.11484618428771397, 0.7059251769717452, 0.12281032633368355, 0.9508213374953449, 0.9259352585599808], [-0.2730689024032435, 0.07618823864848932, -1.78947871588679, 0.7185902687721566, -0.8720616482384062, 0.262826278825518, 1.2584022226937603], [-0.39948869119799374, -0.16619971678484485, -2.3486447742252574, 0.9245328872762455, -1.5963861886649444, -0.5757323885295419, -0.1601288091260711], [-0.44848422724900067, -0.242229421507201, 0.5401439683031086, 0.12867460656153965, 1.4569684422522293, 1.2015250746954835, -0.25671937646062354], [-0.40853406382894886, -0.4296846136694583, -0.35988771224429933, 0.23078789908137395, -2.265423730410603, 0.13906801747215103, -0.42752462789878487], [1.303251625621408, -0.4861344712438215, -3.076051900602065, 0.7930268730859353, 0.9487564778346821, 0.14410659311710444, -0.08096973654509447], [-0.294156665223644, -1.0044287579224465, -1.1212598523055932, -1.492213194283499, -0.26630757328396354, 0.11629288637099654, 0.8712915387749428], [0.4775667059721723, 0.7185323573292407, 0.8174851713367153, -0.9918549738678698, -2.4320427937538835, -1.3907762745565295, 0.385479412871942], [-0.872058116712512, -1.1352705338554765, -0.19916258201027473, 0.2235233833058544, 0.7307266762507388, -0.6954675283483174, 2.4486679365636776], [0.08532254607271605, -0.3872602941095848, -1.1668197226852175, -0.49633118447429747, 1.2951616890807844, 2.133389726125043, 0.2629625240389581], [-0.5393951084752912, 0.6177678438246403, -0.5294330616326552, 0.02548582246758629, -0.5457986098322705, -0.24628873732129355, -0.20249474442861434], [-0.44450265241229725, -0.9521477225291929, -0.534286959695297, 0.25126877792811947, 1.2705691011027773, -0.14499916879219538, 0.8284937536910908], [0.4766983618431498, 0.4407123940989642, -1.9095852244766296, 1.6605854613204234, 3.2890673840317124, -0.7555659472346795, 0.2411406139411824], [-0.11112585467079927, -0.23212850320486078, -0.5345082394772127, 0.8282270833465034, 0.8008184492506827, 0.6737638947336403, -0.02453900440524026], [-1.3364685795755513, 0.3488356125965435, -0.7703311810880592, 0.25553154074913015, 1.3674993233618664, 1.2630598890833562, 0.8624437246363899], [1.5731179221301337, -1.5203387277107958, -2.0063854487790427, -1.9791978984210683, -0.02338019727707841, -0.1030882803230794, -0.463642734844359], [-0.28197575536940317, 0.19899196211107262, -1.1273249667019454, -1.1802008744875694, 2.1107647550234554, 0.7819445414175696, 1.7321846118343396], [-0.445407966263196, -0.2989982728690713, 0.21501309106839722, 0.20371561957646706, -0.19122734432490074, -0.8937191165752099, -0.48074301925104407], [0.4538131715579225, 0.419227038520478, -1.551397095444556, -0.63421605672464, -0.20191877032225158, -0.24487661985686707, -0.4157908966871453], [-1.0509518000720994, -0.6172566721683558, 0.3139150196409972, 0.9517539997259453, -2.612872160436696, -0.043896911403715544, -0.01788955116265649], [0.746962055397538, 0.15238072906883993, 1.1831637708848806, -0.5198398271989303, 0.06183085361744162, -1.168912145285495, 0.8132490138208709], [-0.6313846776542573, -0.19420323072471968, 0.37616523359776655, -0.40838039347688415, 0.4513430930158705, -0.9960939665119856, -1.631271714948771], [-0.7858452332813112, 0.13939602424842001, -0.8068351247314294, -0.26753045258983976, -0.24415045504437696, -1.3398297476852639, 2.0438366991772954], [1.4178417154095397, 0.42079538670482963, -1.2945392952669494, 0.11238055193049613, -0.5631056980248873, -0.41002310666110436, -1.0790551611429529], [-1.2984730761691798, 0.9619366221074563, 0.13083000751267804, 1.115875567127982, 1.094610863477227, 0.6147784993002874, -0.3214303273660397], [-0.5144607486860319, -2.403006030944366, -0.6458506100386738, -0.7348248065578435, -0.32551538584480944, -1.3353411725631898, -1.0874085587879305], [-1.3848836477069333, 0.0008793843632067205, 1.1818479254572616, 1.0546884256767317, 3.5470639765627063, 1.207282914419137, 0.6569311831170536], [-0.03331995205185503, 0.9431842152364569, -1.258044124560166, 0.7809086460660467, -0.17405701356007192, 0.04984756223848633, -1.6278791281170304], [0.42424434532867367, 0.28236612198171773, 0.5514944702236544, -0.6432038599375552, 0.3704598989201463, -0.08708632115294763, 0.3347861698606902], [1.3299758595131042, -0.4227502981503842, -0.5523737148901708, -0.8617124896540066, -0.9089497592512303, 1.0541454594526949, -1.0298786051881048], [0.33520994277176297, 0.8329513427753714, 1.786740245047859, 0.3861468405419955, -1.8027271771088742, 0.5179991920486727, -0.5063625575710725], [0.9548238983636731, 1.4355249061880182, 0.3164021012245602, -0.6652350180909011, 2.1811755921745575, -0.829731287618638, -1.085195949309467], [-0.97903851303004, -0.8046187668173763, -0.6896584275159044, 1.6638287234293245, 1.3193214568137486, 0.3998947340511054, -0.08721916929847191], [-1.3151374106853346, 0.45405020179165645, 1.4813128041819195, 0.46010907665680667, -0.17094032399275028, -0.9762551342177307, -0.060544853177542594], [0.6712236909394316, -0.3856719876187206, 0.30940664048865907, -1.4700754431266765, 0.4943932924583735, 1.246263161667933, 0.15209572872628915], [-0.8471117761999647, 0.7746851931524026, -0.019986265345439364, 0.9581669869733608, -0.09821117772593904, -0.14316801928270445, -0.19480448075122503], [1.1038866179355162, -0.6704421700431695, -0.4201088048089282, 0.381951019884619, -1.0735676057539278, -0.20239238838624474, 0.2645924728695988], [-0.4511929877200977, 0.8234938287709973, 0.2714619108969741, -1.2881024731262787, 0.45404281660529644, 0.8526835040281316, 1.5032840469700142], [1.2382298326569385, -0.4951040253218531, -0.4558933233003339, 0.09047754900320198, 0.9175664375339081, 0.8523878292930455, 0.8546279375957176], [-0.2957828831731758, 0.5614898531702089, -1.8537043711827252, -1.8286737525707586, -0.5059153183118837, -0.31195242062517603, 1.5956138150718202], [0.7450889021563477, 1.0544801275772744, -0.6954018709489145, 0.13020672943215728, 1.9877157762067286, 0.1502897489103074, 1.6928226557844057], [0.5471188667200065, -1.667523190460573, -1.069920845460491, -1.6859694246348904, -0.40196862255026033, -0.3571410590718635, 0.4302744281647536], [-0.4827357601583745, 1.7360778794756835, -0.9897259292542496, 0.11741309842307199, 1.0638829378351236, -0.8145351555975241, 1.0539239907025304], [0.26911376311367924, -0.2943367768024961, -1.081343090559293, -0.3225293747854565, -0.250766171359928, 0.39192792251162467, 0.906872043329498], [0.251681337753223, 0.34144803553533837, -0.007155362472933098, 0.36329570172084136, -1.0830958792229017, -0.7652511264377627, -0.030572135940956247], [-0.09294681234722646, 0.5388590091047121, 0.4885356881291213, 0.28387732233802193, 0.06227424045479472, 0.18930164833352517, -0.0534762501015388]], "bias": [0.0, 0.0, 0.0, 0.0, 0.0, 0.0, 0.0], "activation": "sigmoid"}}, {"type": "dense", "params": {"kernel": [[0.8826981336027591], [-0.21739788328328433], [1.3611930921043809], [0.6234879029905882], [0.893211118351344], [-1.0950394100310625], [-2.657394042086248]], "bias": [0.0], "activation": "relu"}}]